digraph Tree {
node [shape=box, style="filled, rounded", color="black", fontname=helvetica] ;
edge [fontname=helvetica] ;
0 [label="Activity <= 1.5\ngini = 0.12\nsamples = 1714\nvalue = [1604, 110]\nclass = Unprovoked", fillcolor="#e78a47"] ;
1 [label="Time <= 1842.5\ngini = 0.028\nsamples = 912\nvalue = [899, 13]\nclass = Unprovoked", fillcolor="#e5833c"] ;
0 -> 1 [labeldistance=2.5, labelangle=45, headlabel="True"] ;
2 [label="Time <= 1602.5\ngini = 0.025\nsamples = 878\nvalue = [867, 11]\nclass = Unprovoked", fillcolor="#e5833c"] ;
1 -> 2 ;
3 [label="Time <= 822.5\ngini = 0.032\nsamples = 673\nvalue = [662, 11]\nclass = Unprovoked", fillcolor="#e5833c"] ;
2 -> 3 ;
4 [label="gini = 0.0\nsamples = 104\nvalue = [104, 0]\nclass = Unprovoked", fillcolor="#e58139"] ;
3 -> 4 ;
5 [label="gini = 0.038\nsamples = 569\nvalue = [558, 11]\nclass = Unprovoked", fillcolor="#e6833d"] ;
3 -> 5 ;
6 [label="gini = 0.0\nsamples = 205\nvalue = [205, 0]\nclass = Unprovoked", fillcolor="#e58139"] ;
2 -> 6 ;
7 [label="Time <= 1847.5\ngini = 0.111\nsamples = 34\nvalue = [32, 2]\nclass = Unprovoked", fillcolor="#e78945"] ;
1 -> 7 ;
8 [label="Activity <= 0.5\ngini = 0.375\nsamples = 4\nvalue = [3, 1]\nclass = Unprovoked", fillcolor="#eeab7b"] ;
7 -> 8 ;
9 [label="gini = 0.5\nsamples = 2\nvalue = [1, 1]\nclass = Unprovoked", fillcolor="#ffffff"] ;
8 -> 9 ;
10 [label="gini = 0.0\nsamples = 2\nvalue = [2, 0]\nclass = Unprovoked", fillcolor="#e58139"] ;
8 -> 10 ;
11 [label="Activity <= 0.5\ngini = 0.064\nsamples = 30\nvalue = [29, 1]\nclass = Unprovoked", fillcolor="#e68540"] ;
7 -> 11 ;
12 [label="gini = 0.0\nsamples = 17\nvalue = [17, 0]\nclass = Unprovoked", fillcolor="#e58139"] ;
11 -> 12 ;
13 [label="gini = 0.142\nsamples = 13\nvalue = [12, 1]\nclass = Unprovoked", fillcolor="#e78c49"] ;
11 -> 13 ;
14 [label="Activity <= 2.5\ngini = 0.213\nsamples = 802\nvalue = [705, 97]\nclass = Unprovoked", fillcolor="#e99254"] ;
0 -> 14 [labeldistance=2.5, labelangle=-45, headlabel="False"] ;
15 [label="Time <= 565.0\ngini = 0.485\nsamples = 75\nvalue = [31, 44]\nclass = Provoked", fillcolor="#c4e2f7"] ;
14 -> 15 ;
16 [label="Fatal (Y/N) <= 0.5\ngini = 0.408\nsamples = 7\nvalue = [5, 2]\nclass = Unprovoked", fillcolor="#efb388"] ;
15 -> 16 ;
17 [label="gini = 0.278\nsamples = 6\nvalue = [5, 1]\nclass = Unprovoked", fillcolor="#ea9a61"] ;
16 -> 17 ;
18 [label="gini = 0.0\nsamples = 1\nvalue = [0, 1]\nclass = Provoked", fillcolor="#399de5"] ;
16 -> 18 ;
19 [label="Fatal (Y/N) <= 0.5\ngini = 0.472\nsamples = 68\nvalue = [26, 42]\nclass = Provoked", fillcolor="#b4daf5"] ;
15 -> 19 ;
20 [label="gini = 0.457\nsamples = 65\nvalue = [23, 42]\nclass = Provoked", fillcolor="#a5d3f3"] ;
19 -> 20 ;
21 [label="gini = 0.0\nsamples = 3\nvalue = [3, 0]\nclass = Unprovoked", fillcolor="#e58139"] ;
19 -> 21 ;
22 [label="Activity <= 17.5\ngini = 0.135\nsamples = 727\nvalue = [674, 53]\nclass = Unprovoked", fillcolor="#e78b49"] ;
14 -> 22 ;
23 [label="Activity <= 4.5\ngini = 0.085\nsamples = 610\nvalue = [583, 27]\nclass = Unprovoked", fillcolor="#e68742"] ;
22 -> 23 ;
24 [label="gini = 0.158\nsamples = 208\nvalue = [190, 18]\nclass = Unprovoked", fillcolor="#e78d4c"] ;
23 -> 24 ;
25 [label="gini = 0.044\nsamples = 402\nvalue = [393, 9]\nclass = Unprovoked", fillcolor="#e6843e"] ;
23 -> 25 ;
26 [label="Fatal (Y/N) <= 0.5\ngini = 0.346\nsamples = 117\nvalue = [91, 26]\nclass = Unprovoked", fillcolor="#eca572"] ;
22 -> 26 ;
27 [label="gini = 0.405\nsamples = 92\nvalue = [66, 26]\nclass = Unprovoked", fillcolor="#efb387"] ;
26 -> 27 ;
28 [label="gini = 0.0\nsamples = 25\nvalue = [25, 0]\nclass = Unprovoked", fillcolor="#e58139"] ;
26 -> 28 ;
}