digraph Tree {
node [shape=box, style="filled, rounded", color="black", fontname="helvetica"] ;
edge [fontname="helvetica"] ;
0 [label="Activity <= 5.5\ngini = 0.19\nsamples = 2894\nvalue = [2586, 308]\nclass = Unprovoked", fillcolor="#e89051"] ;
1 [label="Age <= 69.0\ngini = 0.03\nsamples = 1402\nvalue = [1381, 21]\nclass = Unprovoked", fillcolor="#e5833c"] ;
0 -> 1 [labeldistance=2.5, labelangle=45, headlabel="True"] ;
2 [label="Injury <= 2513.5\ngini = 0.028\nsamples = 1401\nvalue = [1381, 20]\nclass = Unprovoked", fillcolor="#e5833c"] ;
1 -> 2 ;
3 [label="Injury <= 471.5\ngini = 0.027\nsamples = 1398\nvalue = [1379, 19]\nclass = Unprovoked", fillcolor="#e5833c"] ;
2 -> 3 ;
4 [label="gini = 0.0\nsamples = 652\nvalue = [652, 0]\nclass = Unprovoked", fillcolor="#e58139"] ;
3 -> 4 ;
5 [label="gini = 0.05\nsamples = 746\nvalue = [727, 19]\nclass = Unprovoked", fillcolor="#e6843e"] ;
3 -> 5 ;
6 [label="Full Location <= 2873.0\ngini = 0.444\nsamples = 3\nvalue = [2, 1]\nclass = Unprovoked", fillcolor="#f2c09c"] ;
2 -> 6 ;
7 [label="gini = 0.0\nsamples = 1\nvalue = [0, 1]\nclass = Provoked", fillcolor="#399de5"] ;
6 -> 7 ;
8 [label="gini = 0.0\nsamples = 2\nvalue = [2, 0]\nclass = Unprovoked", fillcolor="#e58139"] ;
6 -> 8 ;
9 [label="gini = 0.0\nsamples = 1\nvalue = [0, 1]\nclass = Provoked", fillcolor="#399de5"] ;
1 -> 9 ;
10 [label="Age <= 2.5\ngini = 0.311\nsamples = 1492\nvalue = [1205, 287]\nclass = Unprovoked", fillcolor="#eb9f68"] ;
0 -> 10 [labeldistance=2.5, labelangle=-45, headlabel="False"] ;
11 [label="Species  <= 73.5\ngini = 0.488\nsamples = 239\nvalue = [101, 138]\nclass = Provoked", fillcolor="#cae5f8"] ;
10 -> 11 ;
12 [label="latitude <= 31.373\ngini = 0.454\nsamples = 106\nvalue = [69, 37]\nclass = Unprovoked", fillcolor="#f3c5a3"] ;
11 -> 12 ;
13 [label="gini = 0.398\nsamples = 84\nvalue = [61, 23]\nclass = Unprovoked", fillcolor="#efb184"] ;
12 -> 13 ;
14 [label="gini = 0.463\nsamples = 22\nvalue = [8, 14]\nclass = Provoked", fillcolor="#aad5f4"] ;
12 -> 14 ;
15 [label="Injury <= 133.5\ngini = 0.365\nsamples = 133\nvalue = [32, 101]\nclass = Provoked", fillcolor="#78bced"] ;
11 -> 15 ;
16 [label="gini = 0.0\nsamples = 4\nvalue = [4, 0]\nclass = Unprovoked", fillcolor="#e58139"] ;
15 -> 16 ;
17 [label="gini = 0.34\nsamples = 129\nvalue = [28, 101]\nclass = Provoked", fillcolor="#70b8ec"] ;
15 -> 17 ;
18 [label="Injury <= 1515.0\ngini = 0.21\nsamples = 1253\nvalue = [1104, 149]\nclass = Unprovoked", fillcolor="#e99254"] ;
10 -> 18 ;
19 [label="latitude <= 48.496\ngini = 0.115\nsamples = 818\nvalue = [768, 50]\nclass = Unprovoked", fillcolor="#e78946"] ;
18 -> 19 ;
20 [label="gini = 0.109\nsamples = 815\nvalue = [768, 47]\nclass = Unprovoked", fillcolor="#e78945"] ;
19 -> 20 ;
21 [label="gini = 0.0\nsamples = 3\nvalue = [0, 3]\nclass = Provoked", fillcolor="#399de5"] ;
19 -> 21 ;
22 [label="Fatal (Y/N) <= 0.5\ngini = 0.352\nsamples = 435\nvalue = [336, 99]\nclass = Unprovoked", fillcolor="#eda673"] ;
18 -> 22 ;
23 [label="gini = 0.404\nsamples = 349\nvalue = [251, 98]\nclass = Unprovoked", fillcolor="#efb286"] ;
22 -> 23 ;
24 [label="gini = 0.023\nsamples = 86\nvalue = [85, 1]\nclass = Unprovoked", fillcolor="#e5823b"] ;
22 -> 24 ;
}